digraph Tree {
node [shape=box, style="filled, rounded", color="black", fontname="helvetica"] ;
edge [fontname="helvetica"] ;
0 [label=<y_no &le; 0.5<br/>gini = 0.205<br/>samples = 36168<br/>value = [31970, 4198]<br/>class = no>, fillcolor="#e89253"] ;
1 [label=<gini = 0.0<br/>samples = 4198<br/>value = [0, 4198]<br/>class = yes>, fillcolor="#399de5"] ;
0 -> 1 [labeldistance=2.5, labelangle=45, headlabel="True"] ;
2 [label=<gini = 0.0<br/>samples = 31970<br/>value = [31970, 0]<br/>class = no>, fillcolor="#e58139"] ;
0 -> 2 [labeldistance=2.5, labelangle=-45, headlabel="False"] ;
}
